digraph Tree {
node [shape=box, fontname="helvetica"] ;
edge [fontname="helvetica"] ;
0 [label="x[1] <= 7.5\nsquared_error = 6167443304.923\nsamples = 1168\nvalue = 180348.282"] ;
1 [label="x[1] <= 6.5\nsquared_error = 2464186041.113\nsamples = 990\nvalue = 158274.711"] ;
0 -> 1 [labeldistance=2.5, labelangle=45, headlabel="True"] ;
2 [label="x[5] <= 1378.5\nsquared_error = 1456272547.521\nsamples = 729\nvalue = 140444.656"] ;
1 -> 2 ;
3 [label="x[3] <= 1953.5\nsquared_error = 850814052.688\nsamples = 450\nvalue = 124674.787"] ;
2 -> 3 ;
4 [label="x[1] <= 4.5\nsquared_error = 667820505.641\nsamples = 161\nvalue = 104594.472"] ;
3 -> 4 ;
5 [label="x[5] <= 1004.0\nsquared_error = 681173260.306\nsamples = 55\nvalue = 86211.055"] ;
4 -> 5 ;
6 [label="x[1] <= 3.5\nsquared_error = 428271161.31\nsamples = 28\nvalue = 71100.393"] ;
5 -> 6 ;
7 [label="squared_error = 252980163.41\nsamples = 12\nvalue = 59875.917"] ;
6 -> 7 ;
8 [label="squared_error = 394379023.438\nsamples = 16\nvalue = 79518.75"] ;
6 -> 8 ;
9 [label="x[2] <= 5.5\nsquared_error = 461094464.678\nsamples = 27\nvalue = 101881.37"] ;
5 -> 9 ;
10 [label="squared_error = 567457343.75\nsamples = 16\nvalue = 95362.5"] ;
9 -> 10 ;
11 [label="squared_error = 154664741.14\nsamples = 11\nvalue = 111363.364"] ;
9 -> 11 ;
12 [label="x[0] <= 9546.0\nsquared_error = 394556518.791\nsamples = 106\nvalue = 114133.038"] ;
4 -> 12 ;
13 [label="x[9] <= 520.5\nsquared_error = 318593928.538\nsamples = 81\nvalue = 110042.926"] ;
12 -> 13 ;
14 [label="x[5] <= 1114.5\nsquared_error = 290729165.698\nsamples = 71\nvalue = 107377.141"] ;
13 -> 14 ;
15 [label="x[9] <= 278.0\nsquared_error = 240648271.315\nsamples = 41\nvalue = 102074.951"] ;
14 -> 15 ;
16 [label="x[3] <= 1938.5\nsquared_error = 175605861.686\nsamples = 26\nvalue = 106251.923"] ;
15 -> 16 ;
17 [label="squared_error = 154204443.359\nsamples = 16\nvalue = 100909.375"] ;
16 -> 17 ;
18 [label="squared_error = 91110000.0\nsamples = 10\nvalue = 114800.0"] ;
16 -> 18 ;
19 [label="squared_error = 270727994.249\nsamples = 15\nvalue = 94834.867"] ;
15 -> 19 ;
20 [label="x[3] <= 1920.5\nsquared_error = 268242423.182\nsamples = 30\nvalue = 114623.467"] ;
14 -> 20 ;
21 [label="squared_error = 403806189.44\nsamples = 10\nvalue = 105390.4"] ;
20 -> 21 ;
22 [label="x[0] <= 7007.5\nsquared_error = 136523400.0\nsamples = 20\nvalue = 119240.0"] ;
20 -> 22 ;
23 [label="squared_error = 78602500.0\nsamples = 10\nvalue = 117350.0"] ;
22 -> 23 ;
24 [label="squared_error = 187300100.0\nsamples = 10\nvalue = 121130.0"] ;
22 -> 24 ;
25 [label="squared_error = 107744100.0\nsamples = 10\nvalue = 128970.0"] ;
13 -> 25 ;
26 [label="x[2] <= 6.5\nsquared_error = 410858800.0\nsamples = 25\nvalue = 127385.0"] ;
12 -> 26 ;
27 [label="squared_error = 235474214.41\nsamples = 12\nvalue = 117235.417"] ;
26 -> 27 ;
28 [label="squared_error = 389887100.592\nsamples = 13\nvalue = 136753.846"] ;
26 -> 28 ;
29 [label="x[9] <= 295.5\nsquared_error = 602987609.714\nsamples = 289\nvalue = 135861.398"] ;
3 -> 29 ;
30 [label="x[0] <= 5660.0\nsquared_error = 395155068.703\nsamples = 86\nvalue = 117638.081"] ;
29 -> 30 ;
31 [label="squared_error = 190789166.667\nsamples = 18\nvalue = 92783.333"] ;
30 -> 31 ;
32 [label="x[2] <= 5.5\nsquared_error = 242441769.437\nsamples = 68\nvalue = 124217.279"] ;
30 -> 32 ;
33 [label="x[9] <= 120.0\nsquared_error = 270918867.188\nsamples = 32\nvalue = 116993.75"] ;
32 -> 33 ;
34 [label="squared_error = 393053313.609\nsamples = 13\nvalue = 110426.923"] ;
33 -> 34 ;
35 [label="squared_error = 137659958.449\nsamples = 19\nvalue = 121486.842"] ;
33 -> 35 ;
36 [label="x[5] <= 950.0\nsquared_error = 129518975.212\nsamples = 36\nvalue = 130638.194"] ;
32 -> 36 ;
37 [label="squared_error = 104784375.0\nsamples = 16\nvalue = 123275.0"] ;
36 -> 37 ;
38 [label="x[5] <= 1141.0\nsquared_error = 71234704.688\nsamples = 20\nvalue = 136528.75"] ;
36 -> 38 ;
39 [label="squared_error = 37415025.0\nsamples = 10\nvalue = 138915.0"] ;
38 -> 39 ;
40 [label="squared_error = 93666006.25\nsamples = 10\nvalue = 134142.5"] ;
38 -> 40 ;
41 [label="x[1] <= 5.5\nsquared_error = 490744990.413\nsamples = 203\nvalue = 143581.621"] ;
29 -> 41 ;
42 [label="x[4] <= 1976.5\nsquared_error = 377829870.079\nsamples = 124\nvalue = 135186.403"] ;
41 -> 42 ;
43 [label="x[0] <= 12817.5\nsquared_error = 392168771.215\nsamples = 75\nvalue = 128600.227"] ;
42 -> 43 ;
44 [label="x[5] <= 970.0\nsquared_error = 328972943.597\nsamples = 65\nvalue = 125617.815"] ;
43 -> 44 ;
45 [label="x[4] <= 1968.5\nsquared_error = 103781596.306\nsamples = 24\nvalue = 116271.167"] ;
44 -> 45 ;
46 [label="squared_error = 111236686.76\nsamples = 10\nvalue = 111715.8"] ;
45 -> 46 ;
47 [label="squared_error = 73046696.429\nsamples = 14\nvalue = 119525.0"] ;
45 -> 47 ;
48 [label="x[2] <= 5.5\nsquared_error = 379720672.219\nsamples = 41\nvalue = 131089.024"] ;
44 -> 48 ;
49 [label="x[5] <= 1106.0\nsquared_error = 484108707.483\nsamples = 21\nvalue = 122971.429"] ;
48 -> 49 ;
50 [label="squared_error = 84747933.884\nsamples = 11\nvalue = 128545.455"] ;
49 -> 50 ;
51 [label="squared_error = 851634400.0\nsamples = 10\nvalue = 116840.0"] ;
49 -> 51 ;
52 [label="x[9] <= 470.5\nsquared_error = 128273468.75\nsamples = 20\nvalue = 139612.5"] ;
48 -> 52 ;
53 [label="squared_error = 111587025.0\nsamples = 10\nvalue = 135185.0"] ;
52 -> 53 ;
54 [label="squared_error = 105754400.0\nsamples = 10\nvalue = 144040.0"] ;
52 -> 54 ;
55 [label="squared_error = 369321269.29\nsamples = 10\nvalue = 147985.9"] ;
43 -> 55 ;
56 [label="x[5] <= 1015.0\nsquared_error = 187863908.735\nsamples = 49\nvalue = 145267.286"] ;
42 -> 56 ;
57 [label="x[0] <= 8447.5\nsquared_error = 86649788.43\nsamples = 22\nvalue = 135125.455"] ;
56 -> 57 ;
58 [label="squared_error = 60028275.0\nsamples = 12\nvalue = 131105.0"] ;
57 -> 58 ;
59 [label="squared_error = 75922500.0\nsamples = 10\nvalue = 139950.0"] ;
57 -> 59 ;
60 [label="x[3] <= 1963.5\nsquared_error = 118236504.519\nsamples = 27\nvalue = 153531.0"] ;
56 -> 60 ;
61 [label="squared_error = 61086100.0\nsamples = 10\nvalue = 147520.0"] ;
60 -> 61 ;
62 [label="squared_error = 118097736.692\nsamples = 17\nvalue = 157066.882"] ;
60 -> 62 ;
63 [label="x[5] <= 1117.5\nsquared_error = 383711199.007\nsamples = 79\nvalue = 156758.924"] ;
41 -> 63 ;
64 [label="x[0] <= 7868.0\nsquared_error = 169194508.724\nsamples = 33\nvalue = 145139.394"] ;
63 -> 64 ;
65 [label="squared_error = 126377654.321\nsamples = 18\nvalue = 140288.889"] ;
64 -> 65 ;
66 [label="squared_error = 158462400.0\nsamples = 15\nvalue = 150960.0"] ;
64 -> 66 ;
67 [label="x[4] <= 1974.5\nsquared_error = 371261384.959\nsamples = 46\nvalue = 165094.674"] ;
63 -> 67 ;
68 [label="squared_error = 95307397.959\nsamples = 14\nvalue = 152321.429"] ;
67 -> 68 ;
69 [label="x[5] <= 1244.0\nsquared_error = 389381554.093\nsamples = 32\nvalue = 170682.969"] ;
67 -> 69 ;
70 [label="squared_error = 329088851.309\nsamples = 16\nvalue = 164602.062"] ;
69 -> 70 ;
71 [label="squared_error = 375719415.234\nsamples = 16\nvalue = 176763.875"] ;
69 -> 71 ;
72 [label="x[1] <= 5.5\nsquared_error = 1384754495.636\nsamples = 279\nvalue = 165879.928"] ;
2 -> 72 ;
73 [label="x[0] <= 14293.5\nsquared_error = 966581300.238\nsamples = 109\nvalue = 145613.982"] ;
72 -> 73 ;
74 [label="x[4] <= 1968.5\nsquared_error = 803305247.029\nsamples = 92\nvalue = 140449.717"] ;
73 -> 74 ;
75 [label="x[2] <= 4.5\nsquared_error = 527335485.154\nsamples = 45\nvalue = 128344.156"] ;
74 -> 75 ;
76 [label="squared_error = 434548760.331\nsamples = 11\nvalue = 109718.182"] ;
75 -> 76 ;
77 [label="x[6] <= 1.5\nsquared_error = 408800381.987\nsamples = 34\nvalue = 134370.206"] ;
75 -> 77 ;
78 [label="squared_error = 298633722.516\nsamples = 15\nvalue = 143579.133"] ;
77 -> 78 ;
79 [label="squared_error = 375967368.421\nsamples = 19\nvalue = 127100.0"] ;
77 -> 79 ;
80 [label="x[3] <= 1920.5\nsquared_error = 792884825.616\nsamples = 47\nvalue = 152040.149"] ;
74 -> 80 ;
81 [label="squared_error = 405680236.686\nsamples = 13\nvalue = 130623.077"] ;
80 -> 81 ;
82 [label="x[0] <= 10230.0\nsquared_error = 698494032.734\nsamples = 34\nvalue = 160229.029"] ;
80 -> 82 ;
83 [label="x[3] <= 1952.0\nsquared_error = 520411574.821\nsamples = 21\nvalue = 152037.476"] ;
82 -> 83 ;
84 [label="squared_error = 701614000.04\nsamples = 10\nvalue = 163183.4"] ;
83 -> 84 ;
85 [label="squared_error = 140073504.876\nsamples = 11\nvalue = 141904.818"] ;
83 -> 85 ;
86 [label="squared_error = 702671597.633\nsamples = 13\nvalue = 173461.538"] ;
82 -> 86 ;
87 [label="squared_error = 924784567.474\nsamples = 17\nvalue = 173561.765"] ;
73 -> 87 ;
88 [label="x[9] <= 340.0\nsquared_error = 1220695334.835\nsamples = 170\nvalue = 178873.976"] ;
72 -> 88 ;
89 [label="x[2] <= 6.5\nsquared_error = 930509791.883\nsamples = 31\nvalue = 145111.29"] ;
88 -> 89 ;
90 [label="squared_error = 298911539.792\nsamples = 17\nvalue = 131541.176"] ;
89 -> 90 ;
91 [label="squared_error = 1202317920.918\nsamples = 14\nvalue = 161589.286"] ;
89 -> 91 ;
92 [label="x[5] <= 1930.5\nsquared_error = 974488435.68\nsamples = 139\nvalue = 186403.784"] ;
88 -> 92 ;
93 [label="x[0] <= 13992.0\nsquared_error = 535207644.955\nsamples = 107\nvalue = 178053.57"] ;
92 -> 93 ;
94 [label="x[4] <= 1983.0\nsquared_error = 412343579.876\nsamples = 93\nvalue = 174544.591"] ;
93 -> 94 ;
95 [label="x[2] <= 5.5\nsquared_error = 377190595.568\nsamples = 38\nvalue = 163207.895"] ;
94 -> 95 ;
96 [label="squared_error = 497348858.131\nsamples = 17\nvalue = 156526.471"] ;
95 -> 96 ;
97 [label="x[9] <= 457.0\nsquared_error = 214526507.937\nsamples = 21\nvalue = 168616.667"] ;
95 -> 97 ;
98 [label="squared_error = 177102100.0\nsamples = 10\nvalue = 158430.0"] ;
97 -> 98 ;
99 [label="squared_error = 68455165.289\nsamples = 11\nvalue = 177877.273"] ;
97 -> 99 ;
100 [label="x[4] <= 2004.5\nsquared_error = 286484940.061\nsamples = 55\nvalue = 182377.218"] ;
94 -> 100 ;
101 [label="x[9] <= 507.0\nsquared_error = 183013249.935\nsamples = 44\nvalue = 186398.295"] ;
100 -> 101 ;
102 [label="x[5] <= 1607.0\nsquared_error = 124517075.096\nsamples = 28\nvalue = 181863.393"] ;
101 -> 102 ;
103 [label="squared_error = 100060151.91\nsamples = 12\nvalue = 176772.917"] ;
102 -> 103 ;
104 [label="squared_error = 108849023.438\nsamples = 16\nvalue = 185681.25"] ;
102 -> 104 ;
105 [label="squared_error = 186410849.609\nsamples = 16\nvalue = 194334.375"] ;
101 -> 105 ;
106 [label="squared_error = 376990451.901\nsamples = 11\nvalue = 166292.909"] ;
100 -> 106 ;
107 [label="squared_error = 726243520.026\nsamples = 14\nvalue = 201363.214"] ;
93 -> 107 ;
108 [label="x[2] <= 6.5\nsquared_error = 1430603192.965\nsamples = 32\nvalue = 214324.812"] ;
92 -> 108 ;
109 [label="squared_error = 1085008114.173\nsamples = 18\nvalue = 194190.222"] ;
108 -> 109 ;
110 [label="squared_error = 683555059.694\nsamples = 14\nvalue = 240212.143"] ;
108 -> 110 ;
111 [label="x[5] <= 2020.0\nsquared_error = 1911276278.097\nsamples = 261\nvalue = 208075.9"] ;
1 -> 111 ;
112 [label="x[5] <= 1483.0\nsquared_error = 1253385279.71\nsamples = 210\nvalue = 196591.833"] ;
111 -> 112 ;
113 [label="x[3] <= 2005.5\nsquared_error = 634187027.087\nsamples = 84\nvalue = 176941.643"] ;
112 -> 113 ;
114 [label="x[0] <= 6542.0\nsquared_error = 602289310.159\nsamples = 61\nvalue = 170985.852"] ;
113 -> 114 ;
115 [label="squared_error = 273210349.84\nsamples = 18\nvalue = 156621.222"] ;
114 -> 115 ;
116 [label="x[4] <= 1994.0\nsquared_error = 617509936.696\nsamples = 43\nvalue = 176998.953"] ;
114 -> 116 ;
117 [label="squared_error = 672033055.556\nsamples = 12\nvalue = 157283.333"] ;
116 -> 117 ;
118 [label="x[9] <= 408.0\nsquared_error = 387692319.511\nsamples = 31\nvalue = 184630.806"] ;
116 -> 118 ;
119 [label="squared_error = 178716074.38\nsamples = 11\nvalue = 170767.273"] ;
118 -> 119 ;
120 [label="x[5] <= 1363.5\nsquared_error = 338780828.188\nsamples = 20\nvalue = 192255.75"] ;
118 -> 120 ;
121 [label="squared_error = 494186900.0\nsamples = 10\nvalue = 188710.0"] ;
120 -> 121 ;
122 [label="squared_error = 158230070.25\nsamples = 10\nvalue = 195801.5"] ;
120 -> 122 ;
123 [label="x[9] <= 541.0\nsquared_error = 375201851.376\nsamples = 23\nvalue = 192737.435"] ;
113 -> 123 ;
124 [label="squared_error = 415115122.2\nsamples = 10\nvalue = 183063.0"] ;
123 -> 124 ;
125 [label="squared_error = 217121948.828\nsamples = 13\nvalue = 200179.308"] ;
123 -> 125 ;
126 [label="x[4] <= 1978.5\nsquared_error = 1237150797.292\nsamples = 126\nvalue = 209691.96"] ;
112 -> 126 ;
127 [label="squared_error = 582091822.222\nsamples = 15\nvalue = 167753.333"] ;
126 -> 127 ;
128 [label="x[9] <= 566.0\nsquared_error = 1055870840.676\nsamples = 111\nvalue = 215359.342"] ;
126 -> 128 ;
129 [label="x[0] <= 12000.5\nsquared_error = 764689615.017\nsamples = 62\nvalue = 203917.823"] ;
128 -> 129 ;
130 [label="x[9] <= 488.5\nsquared_error = 526646291.062\nsamples = 45\nvalue = 197149.778"] ;
129 -> 130 ;
131 [label="x[0] <= 7850.0\nsquared_error = 516004698.438\nsamples = 24\nvalue = 191153.75"] ;
130 -> 131 ;
132 [label="squared_error = 699342454.545\nsamples = 11\nvalue = 182390.0"] ;
131 -> 132 ;
133 [label="squared_error = 240895976.331\nsamples = 13\nvalue = 198569.231"] ;
131 -> 133 ;
134 [label="x[5] <= 1718.0\nsquared_error = 450761541.95\nsamples = 21\nvalue = 204002.381"] ;
130 -> 134 ;
135 [label="squared_error = 164670371.901\nsamples = 11\nvalue = 198259.091"] ;
134 -> 135 ;
136 [label="squared_error = 689265600.0\nsamples = 10\nvalue = 210320.0"] ;
134 -> 136 ;
137 [label="squared_error = 952589967.474\nsamples = 17\nvalue = 221833.235"] ;
129 -> 137 ;
138 [label="x[0] <= 9364.5\nsquared_error = 1049080807.579\nsamples = 49\nvalue = 229836.367"] ;
128 -> 138 ;
139 [label="x[10] <= 2008.5\nsquared_error = 372506308.927\nsamples = 20\nvalue = 211818.85"] ;
138 -> 139 ;
140 [label="squared_error = 389378071.21\nsamples = 10\nvalue = 221177.7"] ;
139 -> 140 ;
141 [label="squared_error = 180458400.0\nsamples = 10\nvalue = 202460.0"] ;
139 -> 141 ;
142 [label="x[0] <= 12486.0\nsquared_error = 1137398163.7\nsamples = 29\nvalue = 242262.241"] ;
138 -> 142 ;
143 [label="squared_error = 817531780.726\nsamples = 19\nvalue = 234262.895"] ;
142 -> 143 ;
144 [label="squared_error = 1392561889.0\nsamples = 10\nvalue = 257461.0"] ;
142 -> 144 ;
145 [label="x[5] <= 2258.0\nsquared_error = 1841096244.925\nsamples = 51\nvalue = 255363.235"] ;
111 -> 145 ;
146 [label="x[10] <= 2007.5\nsquared_error = 740235270.139\nsamples = 30\nvalue = 239984.167"] ;
145 -> 146 ;
147 [label="squared_error = 566350754.438\nsamples = 13\nvalue = 253578.846"] ;
146 -> 147 ;
148 [label="squared_error = 623801038.062\nsamples = 17\nvalue = 229588.235"] ;
146 -> 148 ;
149 [label="x[3] <= 1991.0\nsquared_error = 2593189926.984\nsamples = 21\nvalue = 277333.333"] ;
145 -> 149 ;
150 [label="squared_error = 2316941190.083\nsamples = 11\nvalue = 256570.909"] ;
149 -> 150 ;
151 [label="squared_error = 1901272756.0\nsamples = 10\nvalue = 300172.0"] ;
149 -> 151 ;
152 [label="x[0] <= 12151.0\nsquared_error = 8982104556.859\nsamples = 178\nvalue = 303117.017"] ;
0 -> 152 [labeldistance=2.5, labelangle=-45, headlabel="False"] ;
153 [label="x[9] <= 679.0\nsquared_error = 2899455685.37\nsamples = 107\nvalue = 262002.776"] ;
152 -> 153 ;
154 [label="x[5] <= 1475.0\nsquared_error = 2242867991.602\nsamples = 61\nvalue = 238551.934"] ;
153 -> 154 ;
155 [label="squared_error = 518105948.816\nsamples = 14\nvalue = 200325.429"] ;
154 -> 155 ;
156 [label="x[7] <= 2.5\nsquared_error = 2191701162.162\nsamples = 47\nvalue = 249938.553"] ;
154 -> 156 ;
157 [label="squared_error = 1689402551.625\nsamples = 16\nvalue = 274762.5"] ;
156 -> 157 ;
158 [label="x[9] <= 529.5\nsquared_error = 1968742164.027\nsamples = 31\nvalue = 237126.194"] ;
156 -> 158 ;
159 [label="squared_error = 2232088888.889\nsamples = 15\nvalue = 218666.667"] ;
158 -> 159 ;
160 [label="squared_error = 1102906673.125\nsamples = 16\nvalue = 254432.0"] ;
158 -> 160 ;
161 [label="x[5] <= 1985.0\nsquared_error = 2073800637.494\nsamples = 46\nvalue = 293100.63"] ;
153 -> 161 ;
162 [label="x[3] <= 2006.5\nsquared_error = 1937226459.759\nsamples = 28\nvalue = 273916.25"] ;
161 -> 162 ;
163 [label="squared_error = 1921962006.173\nsamples = 18\nvalue = 264027.778"] ;
162 -> 163 ;
164 [label="squared_error = 1471881786.45\nsamples = 10\nvalue = 291715.5"] ;
162 -> 164 ;
165 [label="squared_error = 823174966.333\nsamples = 18\nvalue = 322943.0"] ;
161 -> 165 ;
166 [label="x[5] <= 1920.5\nsquared_error = 11762285130.669\nsamples = 71\nvalue = 365077.915"] ;
152 -> 166 ;
167 [label="squared_error = 3121588127.089\nsamples = 18\nvalue = 282163.722"] ;
166 -> 167 ;
168 [label="x[1] <= 8.5\nsquared_error = 11569076607.267\nsamples = 53\nvalue = 393237.453"] ;
166 -> 168 ;
169 [label="x[9] <= 763.0\nsquared_error = 4466328751.926\nsamples = 25\nvalue = 353201.44"] ;
168 -> 169 ;
170 [label="squared_error = 2528230507.796\nsamples = 15\nvalue = 331341.267"] ;
169 -> 170 ;
171 [label="squared_error = 5581474200.01\nsamples = 10\nvalue = 385991.7"] ;
169 -> 171 ;
172 [label="x[9] <= 844.0\nsquared_error = 15201862857.667\nsamples = 28\nvalue = 428983.893"] ;
168 -> 172 ;
173 [label="squared_error = 13099826976.46\nsamples = 18\nvalue = 456147.611"] ;
172 -> 173 ;
174 [label="squared_error = 15266674793.36\nsamples = 10\nvalue = 380089.2"] ;
172 -> 174 ;
}